<?xml version="1.0"?>
<opencv_storage>
<cascade>
  <stageType>BOOST</stageType>
  <featureType>HAAR</featureType>
  <height>24</height>
  <width>24</width>
  <stageParams>
    <boostType>GAB</boostType>
    <minHitRate>9.9500000476837158e-01</minHitRate>
    <maxFalseAlarm>5.0000000000000000e-01</maxFalseAlarm>
    <weightTrimRate>9.4999998807907104e-01</weightTrimRate>
    <maxDepth>1</maxDepth>
    <maxWeakCount>100</maxWeakCount></stageParams>
  <featureParams>
    <maxCatCount>0</maxCatCount>
    <featSize>1</featSize>
    <mode>BASIC</mode></featureParams>
  <stageNum>30</stageNum>
  <stages>
    <!-- stage 0 -->
    <_>
      <maxWeakCount>9</maxWeakCount>
      <stageThreshold>-1.7350122928619385e+00</stageThreshold>
      <weakClassifiers>
        <_>
          <internalNodes>
            0 -1 481 7.1097590029239655e-02</internalNodes>
          <leafValues>
            -8.0304008722305298e-01 5.7563656568527222e-01</leafValues></_>
        <_>
          <internalNodes>
            0 -1 549 4.0348663926124573e-02</internalNodes>
          <leafValues>
            -5.8351916074752808e-01 6.1500722169876099e-01</leafValues></_>
        <_>
          <internalNodes>
            0 -1 602 1.1247523128986359e-01</internalNodes>
          <leafValues>
            2.5855261087417603e-01 -8.1830137968063354e-01</leafValues></_>
        <_>
          <internalNodes>
            0 -1 170 -1.6417508944869041e-02</internalNodes>
          <leafValues>
            6.4636319875717163e-01 -2.6709833741188049e-01</leafValues></_>
        <_>
          <internalNodes>
            0 -1 1395 2.9364239424467087e-02</internalNodes>
          <leafValues>
            -1.9241122901439667e-01 5.9096717834472656e-01</leafValues></_>
        <_>
          <internalNodes>
            0 -1 22 -5.5075783282518387e-02</internalNodes>
          <leafValues>
            6.3317936658859253e-01 -1.9860477745532990e-01</leafValues></_>
        <_>
          <internalNodes>
            0 -1 226 2.0380316302180290e-02</internalNodes>
          <leafValues>
            -1.2030140310525894e-01 7.1542680263519287e-01</leafValues></_>
        <_>
          <internalNodes>
            0 -1 1540 2.1425655111670494e-02</internalNodes>
          <leafValues>
            -1.4864039421081543e-01 6.4218777418136597e-01</leafValues></_>
        <_>
          <internalNodes>
            0 -1 1464 -2.3905938491225243e-02</internalNodes>
          <leafValues>
            5.6512033939361572e-01 -2.1028640866279602e-01</leafValues></_></weakClassifiers></_>
    <!-- stage 1 -->
    <_>
      <maxWeakCount>18</maxWeakCount>
      <stageThreshold>-2.0335671901702881e+00</stageThreshold>
      <weakClassifiers>
        <_>
          <internalNodes>
            0 -1 463 -5.6566402316093445e-02</internalNodes>
          <leafValues>
            4.5220792293548584e-01 -7.2241324186325073e-01</leafValues></_>
        <_>
          <internalNodes>
            0 -1 706 3.6379400640726089e-02</internalNodes>
          <leafValues>
            -4.4392439723014832e-01 4.5851248502731323e-01</leafValues></_>
        <_>
          <internalNodes>
            0 -1 585 6.4025118947029114e-02</internalNodes>
          <leafValues>
            -4.1974589228630066e-01 3.8532987236976624e-01</leafValues></_>
        <_>
          <internalNodes>
            0 -1 1689 -2.1886315196752548e-02</internalNodes>
          <leafValues>
            4.3571469187736511e-01 -2.0334331691265106e-01</leafValues></_>
        <_>
          <internalNodes>
            0 -1 1110 -9.7038503736257553e-03</internalNodes>
          <leafValues>
            4.1202521324157715e-01 -1.9662816822528839e-01</leafValues></_>
        <_>
          <internalNodes>
            0 -1 551 2.6952905580401421e-02</internalNodes>
          <leafValues>
            -1.6889938712120056e-01 4.5803254842758179e-01</leafValues></_>
        <_>
          <internalNodes>
            0 -1 179 2.6333481073379517e-02</internalNodes>
          <leafValues>
            -1.1165696382522583e-01 4.8321428894996643e-01</leafValues></_>
        <_>
          <internalNodes>
            0 -1 147 -5.7893127202987671e-02</internalNodes>
          <leafValues>
            4.6763306856155396e-01 -1.9011856615543365e-01</leafValues></_>
        <_>
          <internalNodes>
            0 -1 693 -3.4518882632255554e-02</internalNodes>
          <leafValues>
            5.0530719757080078e-01 -1.3312833011150360e-01</leafValues></_>
        <_>
          <internalNodes>
            0 -1 1124 2.7017644606530666e-03</internalNodes>
          <leafValues>
            9.4066910445690155e-02 -7.7478021383285522e-01</leafValues></_>
        <_>
          <internalNodes>
            0 -1 61 1.3708189129829407e-02</internalNodes>
          <leafValues>
            -1.9722580909729004e-01 3.5347709059715271e-01</leafValues></_>
        <_>
          <internalNodes>
            0 -1 1217 1.3704023323953152e-02</internalNodes>
          <leafValues>
            -1.1020024120807648e-01 4.6524584293365479e-01</leafValues></_>
        <_>
          <internalNodes>
            0 -1 308 1.1390555649995804e-02</internalNodes>
          <leafValues>
            -1.2626546621322632e-01 4.3128862977027893e-01</leafValues></_>
        <_>
          <internalNodes>
            0 -1 26 -4.2369753122329712e-02</internalNodes>
          <leafValues>
            6.3521760702133179e-01 -9.1166749596595764e-02</leafValues></_>
        <_>
          <internalNodes>
            0 -1 1123 -1.1012356262654066e-03</internalNodes>
          <leafValues>
            -5.5939930677413940e-01 1.2148851156234741e-01</leafValues></_>
        <_>
          <internalNodes>
            0 -1 1463 1.3936202041804790e-02</internalNodes>
          <leafValues>
            -1.7764335870742798e-01 3.4163084626197815e-01</leafValues></_>
        <_>
          <internalNodes>
            0 -1 1623 -4.2378127574920654e-02</internalNodes>
          <leafValues>
            4.8363485932350159e-01 -1.1533947288990021e-01</leafValues></_>
        <_>
          <internalNodes>
            0 -1 1836 -1.4924125745892525e-02</internalNodes>
          <leafValues>
            3.5350090265274048e-01 -1.7555235326290131e-01</leafValues></_></weakClassifiers></_>
    <!-- stage 2 -->
    <_>
      <maxWeakCount>22</maxWeakCount>
      <stageThreshold>-1.8031669855117798e+00</stageThreshold>
      <weakClassifiers>
        <_>
          <internalNodes>
            0 -1 375 3.4450672566890717e-02</internalNodes>
          <leafValues>
            -7.3780262470245361e-01 5.2893150597810745e-02</leafValues></_>
        <_>
          <internalNodes>
            0 -1 34 1.3325121998786926e-01</internalNodes>
          <leafValues>
            -3.2691919803619385e-01 5.6149417161941528e-01</leafValues></_>
        <_>
          <internalNodes>
            0 -1 975 -1.2391316704452038e-02</internalNodes>
          <leafValues>
            2.5853642821311951e-01 -4.5205610990524292e-01</leafValues></_>
        <_>
          <internalNodes>
            0 -1 835 1.1926794424653053e-02</internalNodes>
          <leafValues>
            -2.2630111873149872e-01 3.4999498724937439e-01</leafValues></_>
        <_>
          <internalNodes>
            0 -1 896 3.3186771906912327e-03</internalNodes>
          <leafValues>
            9.6556268632411957e-02 -7.7625602483749390e-01</leafValues></_>
        <_>
          <internalNodes>
            0 -1 910 -2.2332062944769859e-03</internalNodes>
          <leafValues>
            -5.6238311529159546e-01 1.2715870141983032e-01</leafValues></_>
        <_>
          <internalNodes>
            0 -1 1886 -2.7652892749756575e-03</internalNodes>
          <leafValues>
            -6.2578034400939941e-01 1.1422645300626755e-01</leafValues></_>
        <_>
          <internalNodes>
            0 -1 1888 4.3041352182626724e-03</internalNodes>
          <leafValues>
            1.1535490304231644e-01 -6.6186988353729248e-01</leafValues></_>
        <_>
          <internalNodes>
            0 -1 107 -2.4884020909667015e-02</internalNodes>
          <leafValues>
            4.0804636478424072e-01 -1.5346772968769073e-01</leafValues></_>
        <_>
          <internalNodes>
            0 -1 1536 3.4174420870840549e-03</internalNodes>
          <leafValues>
            9.2218436300754547e-02 -6.3518321514129639e-01</leafValues></_>
        <_>
          <internalNodes>
            0 -1 1535 -1.8057029228657484e-03</internalNodes>
          <leafValues>
            -5.1551258563995361e-01 1.1365341395139694e-01</leafValues></_>
        <_>
          <internalNodes>
            0 -1 299 4.7780498862266541e-03</internalNodes>
          <leafValues>
            7.8385107219219208e-02 -6.1706334352493286e-01</leafValues></_>
        <_>
          <internalNodes>
            0 -1 1341 -1.7799910157918930e-02</internalNodes>
          <leafValues>
            3.3966341614723206e-01 -1.6659729182720184e-01</leafValues></_>
        <_>
          <internalNodes>
            0 -1 1927 1.9442401826381683e-02</internalNodes>
          <leafValues>
            -1.1159081757068634e-01 4.7000893950462341e-01</leafValues></_>
        <_>
          <internalNodes>
            0 -1 1938 -7.7422484755516052e-03</internalNodes>
          <leafValues>
            3.8095879554748535e-01 -1.4452351629734039e-01</leafValues></_>
        <_>
          <internalNodes>
            0 -1 232 -3.4419053699821234e-03</internalNodes>
          <leafValues>
            -5.0864028930664063e-01 9.0457968413829803e-02</leafValues></_>
        <_>
          <internalNodes>
            0 -1 80 1.3543717563152313e-02</internalNodes>
          <leafValues>
            -2.2258855402469635e-01 2.0430709421634674e-01</leafValues></_>
        <_>
          <internalNodes>
            0 -1 86 -2.1667084656655788e-03</internalNodes>
          <leafValues>
            -5.2334624528884888e-01 8.9647226035594940e-02</leafValues></_>
        <_>
          <internalNodes>
            0 -1 453 2.1448437124490738e-02</internalNodes>
          <leafValues>
            -1.7174081504344940e-01 2.8895962238311768e-01</leafValues></_>
        <_>
          <internalNodes>
            0 -1 721 9.6391662955284119e-03</internalNodes>
          <leafValues>
            -1.7182739078998566e-01 3.2911163568496704e-01</leafValues></_>
        <_>
          <internalNodes>
            0 -1 89 4.7264229506254196e-03</internalNodes>
          <leafValues>
            8.4176503121852875e-02 -7.0515871047973633e-01</leafValues></_>
        <_>
          <internalNodes>
            0 -1 206 9.1696269810199738e-03</internalNodes>
          <leafValues>
            -1.4973354339599609e-01 3.7140753865242004e-01</leafValues></_></weakClassifiers></_>
    <!-- stage 3 -->
    <_>
      <maxWeakCount>24</maxWeakCount>
      <stageThreshold>-1.8016544580459595e+00</stageThreshold>
      <weakClassifiers>
        <_>
          <internalNodes>
            0 -1 1057 1.1493332684040070e-02</internalNodes>
          <leafValues>
            -6.9910329580307007e-01 1.8337182700634003e-01</leafValues></_>
        <_>
          <internalNodes>
            0 -1 340 -1.2846619822084904e-02</internalNodes>
          <leafValues>
            5.1783734560012817e-01 -3.2708641886711121e-01</leafValues></_>
        <_>
          <internalNodes>
            0 -1 1707 4.3895398266613483e-03</internalNodes>
          <leafValues>
            -3.2940056920051575e-01 3.3219164609909058e-01</leafValues></_>
        <_>
          <internalNodes>
            0 -1 223 4.1857592761516571e-02</internalNodes>
          <leafValues>
            -1.9091734290122986e-01 4.4905433058738708e-01</leafValues></_>
        <_>
          <internalNodes>
            0 -1 1604 1.2507805600762367e-02</internalNodes>
          <leafValues>
            -1.5737357735633850e-01 4.4167780876159668e-01</leafValues></_>
        <_>
          <internalNodes>
            0 -1 140 -2.3017682135105133e-02</internalNodes>
          <leafValues>
            4.7124439477920532e-01 -1.2342269718647003e-01</leafValues></_>
        <_>
          <internalNodes>
            0 -1 1699 -3.9626888930797577e-02</internalNodes>
          <leafValues>
            4.3171516060829163e-01 -1.4510649442672729e-01</leafValues></_>
        <_>
          <internalNodes>
            0 -1 826 -1.1200418695807457e-02</internalNodes>
          <leafValues>
            4.2750063538551331e-01 -1.1814227700233459e-01</leafValues></_>
        <_>
          <internalNodes>
            0 -1 1063 -5.2314279600977898e-03</internalNodes>
          <leafValues>
            4.4733411073684692e-01 -1.1653736978769302e-01</leafValues></_>
        <_>
          <internalNodes>
            0 -1 888 1.7636965494602919e-03</internalNodes>
          <leafValues>
            -1.3635842502117157e-01 3.4153985977172852e-01</leafValues></_>
        <_>
          <internalNodes>
            0 -1 879 -2.6670112274587154e-03</internalNodes>
          <leafValues>
            3.5912573337554932e-01 -1.4054976403713226e-01</leafValues></_>
        <_>
          <internalNodes>
            0 -1 944 6.3148677349090576e-02</internalNodes>
          <leafValues>
            7.7406816184520721e-02 -6.0562145709991455e-01</leafValues></_>
        <_>
          <internalNodes>
            0 -1 1078 3.9468393661081791e-03</internalNodes>
          <leafValues>
            -2.2386093437671661e-01 2.2055840492248535e-01</leafValues></_>
        <_>
          <internalNodes>
            0 -1 1510 -2.6761041954159737e-02</internalNodes>
          <leafValues>
            -6.7921084165573120e-01 6.8642511963844299e-02</leafValues></_>
        <_>
          <internalNodes>
            0 -1 1665 -5.2753291092813015e-03</internalNodes>
          <leafValues>
            3.6836400628089905e-01 -1.3122253119945526e-01</leafValues></_>
        <_>
          <internalNodes>
            0 -1 1660 8.0395936965942383e-03</internalNodes>
          <leafValues>
            -1.2454734742641449e-01 3.7964323163032532e-01</leafValues></_>
        <_>
          <internalNodes>
            0 -1 1252 -6.3844891265034676e-03</internalNodes>
          <leafValues>
            -8.7738519906997681e-01 5.5360145866870880e-02</leafValues></_>
        <_>
          <internalNodes>
            0 -1 918 -1.3221603631973267e-01</internalNodes>
          <leafValues>
            -7.3317444324493408e-01 4.4475827366113663e-02</leafValues></_>
        <_>
          <internalNodes>
            0 -1 1711 3.1560361385345459e-02</internalNodes>
          <leafValues>
            -1.1249886453151703e-01 4.0775847434997559e-01</leafValues></_>
        <_>
          <internalNodes>
            0 -1 331 1.8679881468415260e-03</internalNodes>
          <leafValues>
            -1.8060529232025146e-01 2.6435056328773499e-01</leafValues></_>
        <_>
          <internalNodes>
            0 -1 1949 -2.7669416740536690e-03</internalNodes>
          <leafValues>
            -5.2604192495346069e-01 8.3008758723735809e-02</leafValues></_>
        <_>
          <internalNodes>
            0 -1 1693 5.0036963075399399e-03</internalNodes>
          <leafValues>
            -1.3304528594017029e-01 3.2588917016983032e-01</leafValues></_>
        <_>
          <internalNodes>
            0 -1 284 3.5928001161664724e-03</internalNodes>
          <leafValues>
            -1.7502588033676147e-01 2.3752087354660034e-01</leafValues></_>
        <_>
          <internalNodes>
            0 -1 222 5.0385929644107819e-03</internalNodes>
          <leafValues>
            5.0570335239171982e-02 -8.0129152536392212e-01</leafValues></_></weakClassifiers></_>
    <!-- stage 4 -->
    <_>
      <maxWeakCount>28</maxWeakCount>
      <stageThreshold>-1.7857222557067871e+00</stageThreshold>
      <weakClassifiers>
        <_>
          <internalNodes>
            0 -1 723 -4.3024215847253799e-02</internalNodes>
          <leafValues>
            1.3142856955528259e-01 -6.9553452730178833e-01</leafValues></_>
        <_>
          <internalNodes>
            0 -1 1285 -8.9291688054800034e-03</internalNodes>
          <leafValues>
            3.4304752945899963e-01 -3.9157989621162415e-01</leafValues></_>
        <_>
          <internalNodes>
            0 -1 503 -9.4579979777336121e-03</internalNodes>
          <leafValues>
            2.0666587352752686e-01 -4.1074115037918091e-01</leafValues></_>
        <_>
          <internalNodes>
            0 -1 727 -8.2230875268578529e-03</internalNodes>
          <leafValues>
            3.3374825119972229e-01 -2.3412999510765076e-01</leafValues></_>
        <_>
          <internalNodes>
            0 -1 1527 -4.0927645750343800e-03</internalNodes>
          <leafValues>
            4.4643694162368774e-01 -1.0789393633604050e-01</leafValues></_>
        <_>
          <internalNodes>
            0 -1 295 -1.4889605343341827e-02</internalNodes>
          <leafValues>
            5.3582364320755005e-01 -1.1922796070575714e-01</leafValues></_>
        <_>
          <internalNodes>
            0 -1 296 1.2302458286285400e-02</internalNodes>
          <leafValues>
            -1.0005609691143036e-01 4.4863173365592957e-01</leafValues></_>
        <_>
          <internalNodes>
            0 -1 1835 -1.4997864142060280e-02</internalNodes>
          <leafValues>
            3.7870427966117859e-01 -1.4517216384410858e-01</leafValues></_>
        <_>
          <internalNodes>
            0 -1 953 1.1263852939009666e-03</internalNodes>
          <leafValues>
            -1.8465059995651245e-01 2.7862659096717834e-01</leafValues></_>
        <_>
          <internalNodes>
            0 -1 1594 5.5030491203069687e-03</internalNodes>
          <leafValues>
            -1.1555558443069458e-01 4.5645305514335632e-01</leafValues></_>
        <_>
          <internalNodes>
            0 -1 1225 2.0120248664170504e-03</internalNodes>
          <leafValues>
            -1.3285467028617859e-01 3.5964259505271912e-01</leafValues></_>
        <_>
          <internalNodes>
            0 -1 186 1.8147649243474007e-02</internalNodes>
          <leafValues>
            -1.5654326975345612e-01 3.1144067645072937e-01</leafValues></_>
        <_>
          <internalNodes>
            0 -1 1627 -3.3579103648662567e-02</internalNodes>
          <leafValues>
            4.5709243416786194e-01 -1.0775624215602875e-01</leafValues></_>
        <_>
          <internalNodes>
            0 -1 1519 -1.3321994338184595e-03</internalNodes>
          <leafValues>
            4.2917075753211975e-01 -1.0187604278326035e-01</leafValues></_>
        <_>
          <internalNodes>
            0 -1 1452 -2.8319694101810455e-03</internalNodes>
          <leafValues>
            -6.6643047332763672e-01 8.1648543477058411e-02</leafValues></_>
        <_>
          <internalNodes>
            0 -1 1801 -8.4289759397506714e-03</internalNodes>
          <leafValues>
            3.8184458017349243e-01 -1.2433764338493347e-01</leafValues></_>
        <_>
          <internalNodes>
            0 -1 53 -5.0854217261075974e-02</internalNodes>
          <leafValues>
            3.4718376398086548e-01 -1.0298207402229309e-01</leafValues></_>
        <_>
          <internalNodes>
            0 -1 1480 8.0736884847283363e-03</internalNodes>
          <leafValues>
            -1.3209298253059387e-01 2.7854683995246887e-01</leafValues></_>
        <_>
          <internalNodes>
            0 -1 1559 -7.9164411872625351e-03</internalNodes>
          <leafValues>
            2.8023496270179749e-01 -1.3909000158309937e-01</leafValues></_>
        <_>
          <internalNodes>
            0 -1 1016 -2.6447563432157040e-03</internalNodes>
          <leafValues>
            2.4478161334991455e-01 -1.4538894593715668e-01</leafValues></_>
        <_>
          <internalNodes>
            0 -1 523 -7.5146863237023354e-03</internalNodes>
          <leafValues>
            3.7769562005996704e-01 -8.8596902787685394e-02</leafValues></_>
        <_>
          <internalNodes>
            0 -1 1825 8.2259830087423325e-03</internalNodes>
          <leafValues>
            -1.2553890049457550e-01 2.6586958765983582e-01</leafValues></_>
        <_>
          <internalNodes>
            0 -1 257 -1.0083229281008244e-02</internalNodes>
          <leafValues>
            2.7620050311088562e-01 -1.2226717919111252e-01</leafValues></_>
        <_>
          <internalNodes>
            0 -1 674 -1.5205696225166321e-02</internalNodes>
          <leafValues>
            -8.6467272043228149e-01 3.9282787591218948e-02</leafValues></_>
        <_>
          <internalNodes>
            0 -1 169 1.1267045512795448e-02</internalNodes>
          <leafValues>
            -1.0602553188800812e-01 3.3325463533401489e-01</leafValues></_>
        <_>
          <internalNodes>
            0 -1 792 -4.2126979678869247e-03</internalNodes>
          <leafValues>
            -5.3882747888565063e-01 6.5524525940418243e-02</leafValues></_>
        <_>
          <internalNodes>
            0 -1 1176 8.6528540123254061e-04</internalNodes>
          <leafValues>
            -1.4019621908664703e-01 2.5638335943222046e-01</leafValues></_>
        <_>
          <internalNodes>
            0 -1 1047 -5.2017723210155964e-03</internalNodes>
          <leafValues>
            3.3238098025321960e-01 -1.2358461320400238e-01</leafValues></_></weakClassifiers></_>
    <!-- stage 5 -->
    <_>
      <maxWeakCount>37</maxWeakCount>
      <stageThreshold>-1.7703258991241455e+00</stageThreshold>
      <weakClassifiers>
        <_>
          <internalNodes>
            0 -1 268 -1.3179899193346500e-02</internalNodes>
          <leafValues>
            2.4368630722165108e-02 -6.5227657556533813e-01</leafValues></_>
        <_>
          <internalNodes>
            0 -1 689 3.7437118589878082e-02</internalNodes>
          <leafValues>
            -4.0884840488433838e-01 2.4483352899551392e-01</leafValues></_>
        <_>
          <internalNodes>
            0 -1 1402 8.4024891257286072e-03</internalNodes>
          <leafValues>
            -3.7902203202247620e-01 2.0588168501853943e-01</leafValues></_>
        <_>
          <internalNodes>
            0 -1 29 5.6927166879177094e-02</internalNodes>
          <leafValues>
            -1.5276850759983063e-01 4.8484259843826294e-01</leafValues></_>
        <_>
          <internalNodes>
            0 -1 1251 4.4022980146110058e-03</internalNodes>
          <leafValues>
            1.3112524151802063e-01 -6.6170263290405273e-01</leafValues></_>
        <_>
          <internalNodes>
            0 -1 1608 -5.2467705681920052e-03</internalNodes>
          <leafValues>
            2.1206170320510864e-01 -2.2550550103187561e-01</leafValues></_>
        <_>
          <internalNodes>
            0 -1 49 -2.6530874893069267e-02</internalNodes>
          <leafValues>
            4.5786321163177490e-01 -7.7762722969055176e-02</leafValues></_>
        <_>
          <internalNodes>
            0 -1 726 7.4412049725651741e-03</internalNodes>
          <leafValues>
            -1.8271179497241974e-01 2.3939956724643707e-01</leafValues></_>
        <_>
          <internalNodes>
            0 -1 113 -2.6519894599914551e-03</internalNodes>
          <leafValues>
            -5.5338555574417114e-01 7.0788800716400146e-02</leafValues></_>
        <_>
          <internalNodes>
            0 -1 227 -5.2485924214124680e-02</internalNodes>
          <leafValues>
            -8.1206810474395752e-01 2.1119825541973114e-02</leafValues></_>
        <_>
          <internalNodes>
            0 -1 793 5.0758523866534233e-03</internalNodes>
          <leafValues>
            5.2619442343711853e-02 -6.6004967689514160e-01</leafValues></_>
        <_>
          <internalNodes>
            0 -1 785 1.9377031130716205e-03</internalNodes>
          <leafValues>
            -1.2253323197364807e-01 3.2205209136009216e-01</leafValues></_>
        <_>
          <internalNodes>
            0 -1 183 -2.6022349484264851e-03</internalNodes>
          <leafValues>
            -4.8320737481117249e-01 9.0814657509326935e-02</leafValues></_>
        <_>
          <internalNodes>
            0 -1 1347 -3.9200377650558949e-03</internalNodes>
          <leafValues>
            4.5826879143714905e-01 -8.8786669075489044e-02</leafValues></_>
        <_>
          <internalNodes>
            0 -1 1105 1.8225109670311213e-03</internalNodes>
          <leafValues>
            -1.5124832093715668e-01 2.9545712471008301e-01</leafValues></_>
        <_>
          <internalNodes>
            0 -1 50 2.5076060555875301e-03</internalNodes>
          <leafValues>
            7.0504859089851379e-02 -5.1857465505599976e-01</leafValues></_>
        <_>
          <internalNodes>
            0 -1 710 8.1301825121045113e-03</internalNodes>
          <leafValues>
            -1.1443147063255310e-01 3.6385005712509155e-01</leafValues></_>
        <_>
          <internalNodes>
            0 -1 379 4.9946317449212074e-03</internalNodes>
          <leafValues>
            -1.9565136730670929e-01 1.9323457777500153e-01</leafValues></_>
        <_>
          <internalNodes>
            0 -1 219 1.7098139971494675e-02</internalNodes>
          <leafValues>
            5.3347785025835037e-02 -7.9345816373825073e-01</leafValues></_>
        <_>
          <internalNodes>
            0 -1 1244 3.1315211206674576e-02</internalNodes>
          <leafValues>
            -1.3203749060630798e-01 3.1999528408050537e-01</leafValues></_>
        <_>
          <internalNodes>
            0 -1 1837 -2.6315085589885712e-02</internalNodes>
          <leafValues>
            3.2846078276634216e-01 -1.2556408345699310e-01</leafValues></_>
        <_>
          <internalNodes>
            0 -1 1359 8.3609181456267834e-04</internalNodes>
          <leafValues>
            -1.5035785734653473e-01 2.3080825805664063e-01</leafValues></_>
        <_>
          <internalNodes>
            0 -1 1761 -2.8453791514039040e-02</internalNodes>
          <leafValues>
            4.6781781315803528e-01 -7.7842861413955688e-02</leafValues></_>
        <_>
          <internalNodes>
            0 -1 1792 -3.1927074305713177e-03</internalNodes>
          <leafValues>
            -4.5743089914321899e-01 8.5151255130767822e-02</leafValues></_>
        <_>
          <internalNodes>
            0 -1 1653 -2.5515458546578884e-03</internalNodes>
          <leafValues>
            1.5437875688076019e-01 -2.2403058409690857e-01</leafValues></_>
        <_>
          <internalNodes>
            0 -1 1123 1.2592501007020473e-03</internalNodes>
          <leafValues>
            5.8482069522142410e-02 -6.0009598731994629e-01</leafValues></_>
        <_>
          <internalNodes>
            0 -1 1380 -1.6228157328441739e-03</internalNodes>
          <leafValues>
            2.0101721584796906e-01 -1.6915901005268097e-01</leafValues></_>
        <_>
          <internalNodes>
            0 -1 1237 1.7679780721664429e-03</internalNodes>
          <leafValues>
            -1.3207846879959106e-01 2.5319498777389526e-01</leafValues></_>
        <_>
          <internalNodes>
            0 -1 518 4.3894900009036064e-03</internalNodes>
          <leafValues>
            5.2651949226856232e-02 -6.6777807474136353e-01</leafValues></_>
        <_>
          <internalNodes>
            0 -1 1798 5.4097338579595089e-03</internalNodes>
          <leafValues>
            -1.1602780967950821e-01 2.9794663190841675e-01</leafValues></_>
        <_>
          <internalNodes>
            0 -1 1743 -7.3655848391354084e-03</internalNodes>
          <leafValues>
            3.3623254299163818e-01 -1.0616260766983032e-01</leafValues></_>
        <_>
          <internalNodes>
            0 -1 1954 2.4261241778731346e-03</internalNodes>
          <leafValues>
            6.8736769258975983e-02 -5.0200235843658447e-01</leafValues></_>
        <_>
          <internalNodes>
            0 -1 1909 5.2903471514582634e-03</internalNodes>
          <leafValues>
            -1.1808843910694122e-01 2.7483862638473511e-01</leafValues></_>
        <_>
          <internalNodes>
            0 -1 1365 -2.9108640737831593e-03</internalNodes>
          <leafValues>
            3.3995336294174194e-01 -8.9937813580036163e-02</leafValues></_>
        <_>
          <internalNodes>
            0 -1 1361 1.0760496370494366e-03</internalNodes>
          <leafValues>
            -1.4043973386287689e-01 2.5219187140464783e-01</leafValues></_>
        <_>
          <internalNodes>
            0 -1 1943 -1.6051516868174076e-03</internalNodes>
          <leafValues>
            -4.9607017636299133e-01 6.7737795412540436e-02</leafValues></_>
        <_>
          <internalNodes>
            0 -1 1550 -2.3495297878980637e-02</internalNodes>
          <leafValues>
            2.9933664202690125e-01 -1.0917246341705322e-01</leafValues></_></weakClassifiers></_>
    <!-- stage 6 -->
    <_>
      <maxWeakCount>37</maxWeakCount>
      <stageThreshold>-1.7586236000061035e+00</stageThreshold>
      <weakClassifiers>
        <_>
          <internalNodes>
            0 -1 463 -6.9824934005737305e-02</internalNodes>
          <leafValues>
            2.0373513922095299e-02 -6.6215056180953979e-01</leafValues></_>
        <_>
          <internalNodes>
            0 -1 35 1.8825504183769226e-01</internalNodes>
          <leafValues>
            -2.4743598699569702e-01 5.3369218111038208e-01</leafValues></_>
        <_>
          <internalNodes>
            0 -1 272 1.0477518290281296e-01</internalNodes>
          <leafValues>
            -2.6890334486961365e-01 2.0160882174968719e-01</leafValues></_>
        <_>
          <internalNodes>
            0 -1 943 5.0914071500301361e-02</internalNodes>
          <leafValues>
            7.9849854111671448e-02 -6.7197728157043457e-01</leafValues></_>
        <_>
          <internalNodes>
            0 -1 1017 2.4530510418117046e-03</internalNodes>
          <leafValues>
            9.9963091313838959e-02 -5.8410966396331787e-01</leafValues></_>
        <_>
          <internalNodes>
            0 -1 1018 -1.7721739131957293e-03</internalNodes>
          <leafValues>
            -4.8017612099647522e-01 1.2479485571384430e-01</leafValues></_>
        <_>
          <internalNodes>
            0 -1 1056 6.9501344114542007e-03</internalNodes>
          <leafValues>
            -1.8287083506584167e-01 2.4803425371646881e-01</leafValues></_>
        <_>
          <internalNodes>
            0 -1 1246 2.7627248782664537e-03</internalNodes>
          <leafValues>
            1.0436750203371048e-01 -5.0358849763870239e-01</leafValues></_>
        <_>
          <internalNodes>
            0 -1 228 6.7040607333183289e-02</internalNodes>
          <leafValues>
            -9.3013428151607513e-02 4.6321615576744080e-01</leafValues></_>
        <_>
          <internalNodes>
            0 -1 1997 -9.4500335399061441e-04</internalNodes>
          <leafValues>
            -4.1739729046821594e-01 8.2481496036052704e-02</leafValues></_>
        <_>
          <internalNodes>
            0 -1 1222 1.6926531679928303e-03</internalNodes>
          <leafValues>
            -1.1311041563749313e-01 3.1188160181045532e-01</leafValues></_>
        <_>
          <internalNodes>
            0 -1 1102 -3.5258971620351076e-03</internalNodes>
          <leafValues>
            3.8032627105712891e-01 -1.0799730569124222e-01</leafValues></_>
        <_>
          <internalNodes>
            0 -1 31 -1.0073046386241913e-01</internalNodes>
          <leafValues>
            4.5217233896255493e-01 -8.6586497724056244e-02</leafValues></_>
        <_>
          <internalNodes>
            0 -1 814 -2.8969594277441502e-03</internalNodes>
          <leafValues>
            -4.8974847793579102e-01 8.1872791051864624e-02</leafValues></_>
        <_>
          <internalNodes>
            0 -1 510 2.2180373780429363e-03</internalNodes>
          <leafValues>
            6.1486214399337769e-02 -5.5703717470169067e-01</leafValues></_>
        <_>
          <internalNodes>
            0 -1 1996 -1.1371294967830181e-03</internalNodes>
          <leafValues>
            -3.6108747124671936e-01 8.2573011517524719e-02</leafValues></_>
        <_>
          <internalNodes>
            0 -1 683 3.5916166380047798e-03</internalNodes>
          <leafValues>
            -1.3675577938556671e-01 2.3183405399322510e-01</leafValues></_>
        <_>
          <internalNodes>
            0 -1 1537 3.8742697797715664e-03</internalNodes>
          <leafValues>
            5.9438519179821014e-02 -5.2613162994384766e-01</leafValues></_>
        <_>
          <internalNodes>
            0 -1 1536 -4.0683774277567863e-03</internalNodes>
          <leafValues>
            -5.6078994274139404e-01 4.8747792840003967e-02</leafValues></_>
        <_>
          <internalNodes>
            0 -1 631 -1.7069293558597565e-01</internalNodes>
          <leafValues>
            -5.8284103870391846e-01 4.7873850911855698e-02</leafValues></_>
        <_>
          <internalNodes>
            0 -1 1519 8.9912820840254426e-04</internalNodes>
          <leafValues>
            -1.1237221956253052e-01 2.9790815711021423e-01</leafValues></_>
        <_>
          <internalNodes>
            0 -1 1966 2.5434654671698809e-03</internalNodes>
          <leafValues>
            6.5691158175468445e-02 -4.9416843056678772e-01</leafValues></_>
        <_>
          <internalNodes>
            0 -1 1230 3.6406330764293671e-03</internalNodes>
          <leafValues>
            -1.0811201483011246e-01 3.0931416153907776e-01</leafValues></_>
        <_>
          <internalNodes>
            0 -1 1097 5.0889644771814346e-03</internalNodes>
          <leafValues>
            -9.2782959342002869e-02 3.6077630519866943e-01</leafValues></_>
        <_>
          <internalNodes>
            0 -1 1196 5.3044483065605164e-03</internalNodes>
          <leafValues>
            -1.2643182277679443e-01 2.6485329866409302e-01</leafValues></_>
        <_>
          <internalNodes>
            0 -1 1956 4.2857434600591660e-03</internalNodes>
          <leafValues>
            4.9870599061250687e-02 -6.9132637977600098e-01</leafValues></_>
        <_>
          <internalNodes>
            0 -1 89 -3.4658000804483891e-03</internalNodes>
          <leafValues>
            -5.5006003379821777e-01 4.9519170075654984e-02</leafValues></_>
        <_>
          <internalNodes>
            0 -1 752 2.0332653075456619e-03</internalNodes>
          <leafValues>
            -1.7416958510875702e-01 1.7499849200248718e-01</leafValues></_>
        <_>
          <internalNodes>
            0 -1 1895 1.1298672761768103e-03</internalNodes>
          <leafValues>
            8.1426471471786499e-02 -3.7209954857826233e-01</leafValues></_>
        <_>
          <internalNodes>
            0 -1 1842 -1.2325822608545423e-03</internalNodes>
          <leafValues>
            -3.3372890949249268e-01 9.6329592168331146e-02</leafValues></_>
        <_>
          <internalNodes>
            0 -1 934 1.9182378891855478e-03</internalNodes>
          <leafValues>
            -1.0699549317359924e-01 2.7201110124588013e-01</leafValues></_>
        <_>
          <internalNodes>
            0 -1 86 3.8639309350401163e-03</internalNodes>
          <leafValues>
            4.8640128225088120e-02 -6.0206383466720581e-01</leafValues></_>
        <_>
          <internalNodes>
            0 -1 1354 5.4417853243649006e-03</internalNodes>
          <leafValues>
            4.8294052481651306e-02 -5.2508056163787842e-01</leafValues></_>
        <_>
          <internalNodes>
            0 -1 1347 -3.3711718861013651e-03</internalNodes>
          <leafValues>
            3.8163667917251587e-01 -7.8095346689224243e-02</leafValues></_>
        <_>
          <internalNodes>
            0 -1 131 -9.7271248698234558e-02</internalNodes>
          <leafValues>
            -7.7118843793869019e-01 3.9935801178216934e-02</leafValues></_>
        <_>
          <internalNodes>
            0 -1 1262 -5.5633991956710815e-02</internalNodes>
          <leafValues>
            -7.0753532648086548e-01 3.0218338593840599e-02</leafValues></_>
        <_>
          <internalNodes>
            0 -1 1251 -5.2111316472291946e-03</internalNodes>
          <leafValues>
            -7.9635053873062134e-01 2.8854010626673698e-02</leafValues></_></weakClassifiers></_>
    <!-- stage 7 -->
    <_>
      <maxWeakCount>47</maxWeakCount>
      <stageThreshold>-1.7343996763229370e+00</stageThreshold>
      <weakClassifiers>
        <_>
          <internalNodes>
            0 -1 737 8.8319107890129089e-03</internalNodes>
          <leafValues>
            -6.7266893386840820e-01 -1.5515903942286968e-02</leafValues></_>
        <_>
          <internalNodes>
            0 -1 1063 1.2158708646893501e-02</internalNodes>
          <leafValues>
            -2.6261234283447266e-01 3.9439630508422852e-01</leafValues></_>
        <_>
          <internalNodes>
            0 -1 180 5.4412283003330231e-02</internalNodes>
          <leafValues>
            -1.6986615955829620e-01 4.3486800789833069e-01</leafValues></_>
        <_>
          <internalNodes>
            0 -1 556 3.4785002470016479e-02</internalNodes>
          <leafValues>
            -1.8377417325973511e-01 2.7440220117568970e-01</leafValues></_>
        <_>
          <internalNodes>
            0 -1 956 3.4442514181137085e-02</internalNodes>
          <leafValues>
            7.4417114257812500e-02 -6.4754706621170044e-01</leafValues></_>
        <_>
          <internalNodes>
            0 -1 807 1.1065180842706468e-05</internalNodes>
          <leafValues>
            -2.0805665850639343e-01 2.0278936624526978e-01</leafValues></_>
        <_>
          <internalNodes>
            0 -1 193 -1.2215045839548111e-01</internalNodes>
          <leafValues>
            -6.3926249742507935e-01 5.9715140610933304e-02</leafValues></_>
        <_>
          <internalNodes>
            0 -1 1900 -1.1187369636900257e-05</internalNodes>
          <leafValues>
            1.6529774665832520e-01 -2.0511037111282349e-01</leafValues></_>
        <_>
          <internalNodes>
            0 -1 1726 -6.6789439879357815e-03</internalNodes>
          <leafValues>
            -6.0049265623092651e-01 7.3220111429691315e-02</leafValues></_>
        <_>
          <internalNodes>
            0 -1 1201 2.4384995922446251e-03</internalNodes>
          <leafValues>
            -1.3520067930221558e-01 2.9783147573471069e-01</leafValues></_>
        <_>
          <internalNodes>
            0 -1 996 2.8755902312695980e-03</internalNodes>
          <leafValues>
            -8.5916705429553986e-02 3.1758555769920349e-01</leafValues></_>
        <_>
          <internalNodes>
            0 -1 1724 1.1065180842706468e-05</internalNodes>
          <leafValues>
            -1.7996850609779358e-01 1.7858883738517761e-01</leafValues></_>
        <_>
          <internalNodes>
            0 -1 1658 -4.4111501425504684e-02</internalNodes>
          <leafValues>
            -8.3556991815567017e-01 3.2110892236232758e-02</leafValues></_>
        <_>
          <internalNodes>
            0 -1 1426 -1.2674216122832149e-05</internalNodes>
          <leafValues>
            1.8044269084930420e-01 -1.7557857930660248e-01</leafValues></_>
        <_>
          <internalNodes>
            0 -1 1519 1.2676025507971644e-03</internalNodes>
          <leafValues>
            -8.5290767252445221e-02 3.3410319685935974e-01</leafValues></_>
        <_>
          <internalNodes>
            0 -1 248 1.9963595550507307e-03</internalNodes>
          <leafValues>
            7.2061941027641296e-02 -4.1672393679618835e-01</leafValues></_>
        <_>
          <internalNodes>
            0 -1 247 -5.5772159248590469e-04</internalNodes>
          <leafValues>
            -2.8040319681167603e-01 1.0393969714641571e-01</leafValues></_>
        <_>
          <internalNodes>
            0 -1 1092 1.2971805408596992e-03</internalNodes>
          <leafValues>
            -1.3566221296787262e-01 2.3093378543853760e-01</leafValues></_>
        <_>
          <internalNodes>
            0 -1 632 -1.3139158487319946e-01</internalNodes>
          <leafValues>
            -5.1634055376052856e-01 6.0967244207859039e-02</leafValues></_>
        <_>
          <internalNodes>
            0 -1 981 3.3852364867925644e-03</internalNodes>
          <leafValues>
            -1.2057723850011826e-01 2.5606235861778259e-01</leafValues></_>
        <_>
          <internalNodes>
            0 -1 1483 3.9475385099649429e-02</internalNodes>
          <leafValues>
            -2.0610325038433075e-01 1.3831904530525208e-01</leafValues></_>
        <_>
          <internalNodes>
            0 -1 1712 6.1356931924819946e-02</internalNodes>
          <leafValues>
            -7.6280958950519562e-02 3.9575082063674927e-01</leafValues></_>
        <_>
          <internalNodes>
            0 -1 1685 -9.5958471298217773e-02</internalNodes>
          <leafValues>
            3.2423844933509827e-01 -1.1048584431409836e-01</leafValues></_>
        <_>
          <internalNodes>
            0 -1 638 -1.2471644367906265e-05</internalNodes>
          <leafValues>
            1.5142984688282013e-01 -1.8779934942722321e-01</leafValues></_>
        <_>
          <internalNodes>
            0 -1 404 -4.1430336423218250e-03</internalNodes>
          <leafValues>
            -5.5902332067489624e-01 4.9127429723739624e-02</leafValues></_>
        <_>
          <internalNodes>
            0 -1 48 -2.0964516326785088e-02</internalNodes>
          <leafValues>
            4.6789047122001648e-01 -6.4354039728641510e-02</leafValues></_>
        <_>
          <internalNodes>
            0 -1 616 8.2717202603816986e-03</internalNodes>
          <leafValues>
            -1.2607209384441376e-01 2.2672805190086365e-01</leafValues></_>
        <_>
          <internalNodes>
            0 -1 1080 1.3690852938452736e-05</internalNodes>
          <leafValues>
            -1.9622230529785156e-01 1.4769096672534943e-01</leafValues></_>
        <_>
          <internalNodes>
            0 -1 62 -2.7960309758782387e-02</internalNodes>
          <leafValues>
            -5.6104516983032227e-01 5.1046993583440781e-02</leafValues></_>
        <_>
          <internalNodes>
            0 -1 1052 6.3440032303333282e-02</internalNodes>
          <leafValues>
            4.0965188294649124e-02 -5.5888903141021729e-01</leafValues></_>
        <_>
          <internalNodes>
            0 -1 861 4.4230874627828598e-03</internalNodes>
          <leafValues>
            -1.5692691504955292e-01 1.7697355151176453e-01</leafValues></_>
        <_>
          <internalNodes>
            0 -1 587 9.9756084382534027e-03</internalNodes>
          <leafValues>
            -1.2608695030212402e-01 2.7173426747322083e-01</leafValues></_>
        <_>
          <internalNodes>
            0 -1 58 2.2671381011605263e-02</internalNodes>
          <leafValues>
            -7.4924938380718231e-02 3.2222789525985718e-01</leafValues></_>
        <_>
          <internalNodes>
            0 -1 898 3.8233951199799776e-03</internalNodes>
          <leafValues>
            4.0584262460470200e-02 -6.4110189676284790e-01</leafValues></_>
        <_>
          <internalNodes>
            0 -1 1684 1.2082908142474480e-05</internalNodes>
          <leafValues>
            -1.5040323138237000e-01 1.6428792476654053e-01</leafValues></_>
        <_>
          <internalNodes>
            0 -1 1981 1.0856257285922766e-03</internalNodes>
          <leafValues>
            8.6577124893665314e-02 -3.0260956287384033e-01</leafValues></_>
        <_>
          <internalNodes>
            0 -1 1459 -3.8289200514554977e-02</internalNodes>
          <leafValues>
            -7.0838207006454468e-01 3.1144466251134872e-02</leafValues></_>
        <_>
          <internalNodes>
            0 -1 1805 1.5580283477902412e-02</internalNodes>
          <leafValues>
            4.8763506114482880e-02 -4.3241772055625916e-01</leafValues></_>
        <_>
          <internalNodes>
            0 -1 738 2.9296685010194778e-02</internalNodes>
          <leafValues>
            6.6367045044898987e-02 -3.1929096579551697e-01</leafValues></_>
        <_>
          <internalNodes>
            0 -1 1868 4.6957349404692650e-03</internalNodes>
          <leafValues>
            4.5038424432277679e-02 -4.5685505867004395e-01</leafValues></_>
        <_>
          <internalNodes>
            0 -1 1490 2.7537676505744457e-03</internalNodes>
          <leafValues>
            -9.3728914856910706e-02 2.3451471328735352e-01</leafValues></_>
        <_>
          <internalNodes>
            0 -1 1848 -2.1081326995044947e-03</internalNodes>
          <leafValues>
            -3.3907908201217651e-01 6.5200403332710266e-02</leafValues></_>
        <_>
          <internalNodes>
            0 -1 1982 -1.4444498810917139e-03</internalNodes>
          <leafValues>
            3.3441510796546936e-01 -7.7932275831699371e-02</leafValues></_>
        <_>
          <internalNodes>
            0 -1 40 9.3560427194461226e-04</internalNodes>
          <leafValues>
            7.5761571526527405e-02 -2.9797711968421936e-01</leafValues></_>
        <_>
          <internalNodes>
            0 -1 41 -7.0655751042068005e-03</internalNodes>
          <leafValues>
            -6.4717072248458862e-01 3.4297332167625427e-02</leafValues></_>
        <_>
          <internalNodes>
            0 -1 1013 1.4181385049596429e-03</internalNodes>
          <leafValues>
            -1.2757447361946106e-01 1.8723720312118530e-01</leafValues></_>
        <_>
          <internalNodes>
            0 -1 153 -3.3426597714424133e-02</internalNodes>
          <leafValues>
            4.3361181020736694e-01 -6.2118012458086014e-02</leafValues></_></weakClassifiers></_>
    <!-- stage 8 -->
    <_>
      <maxWeakCount>54</maxWeakCount>
      <stageThreshold>-1.6956882476806641e+00</stageThreshold>
      <weakClassifiers>
        <_>
          <internalNodes>
            0 -1 601 -3.4282147884368896e-02</internalNodes>
          <leafValues>
            4.4191345572471619e-02 -6.5253669023513794e-01</leafValues></_>
        <_>
          <internalNodes>
            0 -1 920 7.4822353199124336e-03</internalNodes>
          <leafValues>
            -3.4525150060653687e-01 1.9098404049873352e-01</leafValues></_>
        <_>
          <internalNodes>
            0 -1 511 -1.7859414219856262e-03</internalNodes>
          <leafValues>
            1.5806692838668823e-01 -3.1012165546417236e-01</leafValues></_>
        <_>
          <internalNodes>
            0 -1 564 1.1441848073445726e-05</internalNodes>
          <leafValues>
            -2.3466129601001740e-01 1.8676598370075226e-01</leafValues></_>
        <_>
          <internalNodes>
            0 -1 1641 3.1453105621039867e-03</internalNodes>
          <leafValues>
            -2.0590777695178986e-01 1.9104343652725220e-01</leafValues></_>
        <_>
          <internalNodes>
            0 -1 88 4.4572096318006516e-02</internalNodes>
          <leafValues>
            -9.2046648263931274e-02 3.1558695435523987e-01</leafValues></_>
        <_>
          <internalNodes>
            0 -1 1610 1.7791235819458961e-02</internalNodes>
          <leafValues>
            -1.1575247347354889e-01 2.7580165863037109e-01</leafValues></_>
        <_>
          <internalNodes>
            0 -1 1495 1.0910904966294765e-03</internalNodes>
          <leafValues>
            -1.2173955142498016e-01 2.5956344604492188e-01</leafValues></_>
        <_>
          <internalNodes>
            0 -1 108 -2.1676765754818916e-03</internalNodes>
          <leafValues>
            -4.5271402597427368e-01 7.4411608278751373e-02</leafValues></_>
        <_>
          <internalNodes>
            0 -1 949 2.1901279687881470e-03</internalNodes>
          <leafValues>
            -1.3995771110057831e-01 2.2930672764778137e-01</leafValues></_>
        <_>
          <internalNodes>
            0 -1 1868 -5.4233726114034653e-03</internalNodes>
          <leafValues>
            -5.2570265531539917e-01 6.7353688180446625e-02</leafValues></_>
        <_>
          <internalNodes>
            0 -1 1281 -5.3825493901968002e-02</internalNodes>
          <leafValues>
            -4.8031249642372131e-01 5.8573435992002487e-02</leafValues></_>
        <_>
          <internalNodes>
            0 -1 1844 -1.0514387213333976e-05</internalNodes>
          <leafValues>
            1.4572222530841827e-01 -1.9090896844863892e-01</leafValues></_>
        <_>
          <internalNodes>
            0 -1 1845 -6.1387039022520185e-04</internalNodes>
          <leafValues>
            -3.4394100308418274e-01 8.2628712058067322e-02</leafValues></_>
        <_>
          <internalNodes>
            0 -1 1524 -7.4232518672943115e-03</internalNodes>
          <leafValues>
            2.7897718548774719e-01 -1.0957692563533783e-01</leafValues></_>
        <_>
          <internalNodes>
            0 -1 92 -1.7018586397171021e-02</internalNodes>
          <leafValues>
            2.9483646154403687e-01 -8.6992934346199036e-02</leafValues></_>
        <_>
          <internalNodes>
            0 -1 933 -1.1522366665303707e-02</internalNodes>
          <leafValues>
            3.4008622169494629e-01 -8.0159731209278107e-02</leafValues></_>
        <_>
          <internalNodes>
            0 -1 867 -2.6581808924674988e-02</internalNodes>
          <leafValues>
            -5.7857292890548706e-01 4.8584178090095520e-02</leafValues></_>
        <_>
          <internalNodes>
            0 -1 1235 3.0523333698511124e-03</internalNodes>
          <leafValues>
            -9.8704166710376740e-02 2.7194881439208984e-01</leafValues></_>
        <_>
          <internalNodes>
            0 -1 105 5.3339381702244282e-04</internalNodes>
          <leafValues>
            8.8480614125728607e-02 -3.2477688789367676e-01</leafValues></_>
        <_>
          <internalNodes>
            0 -1 1229 6.0869441367685795e-03</internalNodes>
          <leafValues>
            -8.3264462649822235e-02 3.7192973494529724e-01</leafValues></_>
        <_>
          <internalNodes>
            0 -1 1848 3.4781512804329395e-03</internalNodes>
          <leafValues>
            6.0549899935722351e-02 -4.7919386625289917e-01</leafValues></_>
        <_>
          <internalNodes>
            0 -1 805 -6.6211093217134476e-03</internalNodes>
          <leafValues>
            -4.1580206155776978e-01 5.3469378501176834e-02</leafValues></_>
        <_>
          <internalNodes>
            0 -1 21 -6.6165328025817871e-02</internalNodes>
          <leafValues>
            5.5935215950012207e-01 -5.3256552666425705e-02</leafValues></_>
        <_>
          <internalNodes>
            0 -1 554 5.6605734862387180e-03</internalNodes>
          <leafValues>
            -8.6118221282958984e-02 2.5833529233932495e-01</leafValues></_>
        <_>
          <internalNodes>
            0 -1 306 -4.2897351086139679e-03</internalNodes>
          <leafValues>
            -4.6459889411926270e-01 4.9460373818874359e-02</leafValues></_>
        <_>
          <internalNodes>
            0 -1 1223 2.4436621461063623e-03</internalNodes>
          <leafValues>
            -9.5379732549190521e-02 2.5232517719268799e-01</leafValues></_>
        <_>
          <internalNodes>
            0 -1 389 1.6702074557542801e-02</internalNodes>
          <leafValues>
            -5.8381371200084686e-02 3.9051464200019836e-01</leafValues></_>
        <_>
          <internalNodes>
            0 -1 1125 -4.4741653837263584e-03</internalNodes>
          <leafValues>
            -5.8956640958786011e-01 3.9705857634544373e-02</leafValues></_>
        <_>
          <internalNodes>
            0 -1 1097 1.6931068385019898e-03</internalNodes>
          <leafValues>
            -1.1610198765993118e-01 1.9084048271179199e-01</leafValues></_>
        <_>
          <internalNodes>
            0 -1 1554 -1.6939109191298485e-03</internalNodes>
          <leafValues>
            1.4457608759403229e-01 -1.4798530936241150e-01</leafValues></_>
        <_>
          <internalNodes>
            0 -1 1258 -8.5560828447341919e-02</internalNodes>
          <leafValues>
            -5.2823531627655029e-01 3.7753406912088394e-02</leafValues></_>
        <_>
          <internalNodes>
            0 -1 1279 -3.4274514764547348e-03</internalNodes>
          <leafValues>
            1.7320032417774200e-01 -1.3616712391376495e-01</leafValues></_>
        <_>
          <internalNodes>
            0 -1 1824 -3.9660602807998657e-02</internalNodes>
          <leafValues>
            3.6933532357215881e-01 -5.9725001454353333e-02</leafValues></_>
        <_>
          <internalNodes>
            0 -1 1860 5.8846399188041687e-03</internalNodes>
          <leafValues>
            4.0850143879652023e-02 -6.3178837299346924e-01</leafValues></_>
        <_>
          <internalNodes>
            0 -1 1566 1.0431190021336079e-03</internalNodes>
          <leafValues>
            -1.2515266239643097e-01 1.9252571463584900e-01</leafValues></_>
        <_>
          <internalNodes>
            0 -1 1882 6.5185287967324257e-03</internalNodes>
          <leafValues>
            3.4430764615535736e-02 -6.7903113365173340e-01</leafValues></_>
        <_>
          <internalNodes>
            0 -1 767 -1.2471644367906265e-05</internalNodes>
          <leafValues>
            1.2628409266471863e-01 -1.7828649282455444e-01</leafValues></_>
        <_>
          <internalNodes>
            0 -1 642 -1.2687100097537041e-03</internalNodes>
          <leafValues>
            -3.3430355787277222e-01 6.9412037730216980e-02</leafValues></_>
        <_>
          <internalNodes>
            0 -1 645 -4.5013865455985069e-03</internalNodes>
          <leafValues>
            2.3566368222236633e-01 -1.1154156923294067e-01</leafValues></_>
        <_>
          <internalNodes>
            0 -1 1958 -6.8999342620372772e-03</internalNodes>
          <leafValues>
            3.4160178899765015e-01 -7.1142539381980896e-02</leafValues></_>
        <_>
          <internalNodes>
            0 -1 438 2.6367297768592834e-01</internalNodes>
          <leafValues>
            3.3402442932128906e-02 -7.2619831562042236e-01</leafValues></_>
        <_>
          <internalNodes>
            0 -1 685 -3.0484770832117647e-05</internalNodes>
          <leafValues>
            1.5910452604293823e-01 -1.4585511386394501e-01</leafValues></_>
        <_>
          <internalNodes>
            0 -1 75 1.5425842721015215e-03</internalNodes>
          <leafValues>
            6.1764646321535110e-02 -3.6811864376068115e-01</leafValues></_>
        <_>
          <internalNodes>
            0 -1 709 1.8341429531574249e-03</internalNodes>
          <leafValues>
            -8.1945262849330902e-02 2.7663341164588928e-01</leafValues></_>
        <_>
          <internalNodes>
            0 -1 75 -1.1144902091473341e-03</internalNodes>
          <leafValues>
            -3.4753620624542236e-01 7.1358196437358856e-02</leafValues></_>
        <_>
          <internalNodes>
            0 -1 1142 2.4594471324235201e-03</internalNodes>
          <leafValues>
            4.7781325876712799e-02 -4.2110541462898254e-01</leafValues></_>
        <_>
          <internalNodes>
            0 -1 1944 3.2074272166937590e-03</internalNodes>
          <leafValues>
            4.8618894070386887e-02 -4.1402161121368408e-01</leafValues></_>
        <_>
          <internalNodes>
            0 -1 385 3.9410223253071308e-03</internalNodes>
          <leafValues>
            -1.3355164229869843e-01 1.7589780688285828e-01</leafValues></_>
        <_>
          <internalNodes>
            0 -1 865 1.6425710637122393e-03</internalNodes>
          <leafValues>
            -1.5453928709030151e-01 1.3837435841560364e-01</leafValues></_>
        <_>
          <internalNodes>
            0 -1 968 2.0189285278320313e-03</internalNodes>
          <leafValues>
            -1.3493818044662476e-01 1.7207726836204529e-01</leafValues></_>
        <_>
          <internalNodes>
            0 -1 964 1.0173248127102852e-02</internalNodes>
          <leafValues>
            4.5606315135955811e-02 -5.5988717079162598e-01</leafValues></_>
        <_>
          <internalNodes>
            0 -1 761 1.2830435298383236e-03</internalNodes>
          <leafValues>
            -1.5972499549388885e-01 1.5532715618610382e-01</leafValues></_>
        <_>
          <internalNodes>
            0 -1 371 2.5848862715065479e-03</internalNodes>
          <leafValues>
            -8.5778102278709412e-02 2.4177663028240204e-01</leafValues></_></weakClassifiers></_>
    <!-- stage 9 -->
    <_>
      <maxWeakCount>62</maxWeakCount>
      <stageThreshold>-1.7344433069229126e+00</stageThreshold>
      <weakClassifiers>
        <_>
          <internalNodes>
            0 -1 592 -7.1115553379058838e-02</internalNodes>
          <leafValues>
            8.4008097648620605e-02 -6.4063757658004761e-01</leafValues></_>
        <_>
          <internalNodes>
            0 -1 916 2.5876864790916443e-02</internalNodes>
          <leafValues>
            -3.3613476157188416e-01 2.1095140278339386e-01</leafValues></_>
        <_>
          <internalNodes>
            0 -1 1811 -1.1473982340248767e-05</internalNodes>
          <leafValues>
            1.8128250539302826e-01 -2.3537482321262360e-01</leafValues></_>
        <_>
          <internalNodes>
            0 -1 354 8.9948764070868492e-03</internalNodes>
          <leafValues>
            -2.2748698294162750e-01 1.6522505879402161e-01</leafValues></_>
        <_>
          <internalNodes>
            0 -1 350 -4.6052478253841400e-02</internalNodes>
          <leafValues>
            -3.5161307454109192e-01 1.4237566292285919e-01</leafValues></_>
        <_>
          <internalNodes>
            0 -1 1350 -7.1346797049045563e-03</internalNodes>
          <leafValues>
            4.1970244050025940e-01 -9.4671495258808136e-02</leafValues></_>
        <_>
          <internalNodes>
            0 -1 1003 2.2121220827102661e-03</internalNodes>
          <leafValues>
            -1.0069777816534042e-01 3.1504023075103760e-01</leafValues></_>
        <_>
          <internalNodes>
            0 -1 945 6.0223646461963654e-02</internalNodes>
          <leafValues>
            6.2069714069366455e-02 -4.9432486295700073e-01</leafValues></_>
        <_>
          <internalNodes>
            0 -1 149 1.4417108893394470e-01</internalNodes>
          <leafValues>
            -7.3606468737125397e-02 4.4458216428756714e-01</leafValues></_>
        <_>
          <internalNodes>
            0 -1 1811 1.0751356967375614e-05</internalNodes>
          <leafValues>
            -1.2779420614242554e-01 2.1773475408554077e-01</leafValues></_>
        <_>
          <internalNodes>
            0 -1 1744 -1.1441848073445726e-05</internalNodes>
          <leafValues>
            1.3756826519966125e-01 -1.8341232836246490e-01</leafValues></_>
        <_>
          <internalNodes>
            0 -1 2011 4.6432780800387263e-04</internalNodes>
          <leafValues>
            8.4027819335460663e-02 -3.0933621525764465e-01</leafValues></_>
        <_>
          <internalNodes>
            0 -1 1992 -1.1251633986830711e-03</internalNodes>
          <leafValues>
            -3.4278020262718201e-01 8.7233401834964752e-02</leafValues></_>
        <_>
          <internalNodes>
            0 -1 1011 3.5819974727928638e-03</internalNodes>
          <leafValues>
            -9.6149787306785583e-02 2.4917130172252655e-01</leafValues></_>
        <_>
          <internalNodes>
            0 -1 1167 2.1420344710350037e-01</internalNodes>
          <leafValues>
            3.3197719603776932e-02 -6.5665495395660400e-01</leafValues></_>
        <_>
          <internalNodes>
            0 -1 1104 3.5238657146692276e-03</internalNodes>
          <leafValues>
            -1.1173659563064575e-01 2.4852170050144196e-01</leafValues></_>
        <_>
          <internalNodes>
            0 -1 1545 3.8158420938998461e-03</internalNodes>
          <leafValues>
            4.7500330954790115e-02 -5.4952198266983032e-01</leafValues></_>
        <_>
          <internalNodes>
            0 -1 139 1.5122689073905349e-03</internalNodes>
          <leafValues>
            6.9962464272975922e-02 -3.0601826310157776e-01</leafValues></_>
        <_>
          <internalNodes>
            0 -1 1119 -4.2547583580017090e-03</internalNodes>
          <leafValues>
            3.2044541835784912e-01 -7.2890579700469971e-02</leafValues></_>
        <_>
          <internalNodes>
            0 -1 137 -5.2305299323052168e-04</internalNodes>
          <leafValues>
            -2.5319382548332214e-01 9.9915131926536560e-02</leafValues></_>
        <_>
          <internalNodes>
            0 -1 1612 -1.1065180842706468e-05</internalNodes>
          <leafValues>
            1.4474985003471375e-01 -1.7746466398239136e-01</leafValues></_>
        <_>
          <internalNodes>
            0 -1 1044 -8.9915040880441666e-03</internalNodes>
          <leafValues>
            3.4667152166366577e-01 -7.4668020009994507e-02</leafValues></_>
        <_>
          <internalNodes>
            0 -1 1715 2.5470435502938926e-05</internalNodes>
          <leafValues>
            -1.6822537779808044e-01 1.3836556673049927e-01</leafValues></_>
        <_>
          <internalNodes>
            0 -1 1520 -3.3979173749685287e-03</internalNodes>
          <leafValues>
            3.7259221076965332e-01 -6.5603993833065033e-02</leafValues></_>
        <_>
          <internalNodes>
            0 -1 1926 2.7823146432638168e-02</internalNodes>
          <leafValues>
            -5.4505452513694763e-02 4.0321049094200134e-01</leafValues></_>
        <_>
          <internalNodes>
            0 -1 207 -1.6419988125562668e-02</internalNodes>
          <leafValues>
            2.4932391941547394e-01 -8.8977433741092682e-02</leafValues></_>
        <_>
          <internalNodes>
            0 -1 1469 2.2609536536037922e-03</internalNodes>
          <leafValues>
            5.7424433529376984e-02 -3.9570766687393188e-01</leafValues></_>
        <_>
          <internalNodes>
            0 -1 278 7.3178008198738098e-02</internalNodes>
          <leafValues>
            6.2209133058786392e-02 -3.4405437111854553e-01</leafValues></_>
        <_>
          <internalNodes>
            0 -1 9 1.2435903772711754e-03</internalNodes>
          <leafValues>
            7.0384189486503601e-02 -3.1934481859207153e-01</leafValues></_>
        <_>
          <internalNodes>
            0 -1 714 -9.3324128538370132e-03</internalNodes>
          <leafValues>
            3.9743062853813171e-01 -6.2043435871601105e-02</leafValues></_>
        <_>
          <internalNodes>
            0 -1 813 9.3829724937677383e-03</internalNodes>
          <leafValues>
            -1.3489551842212677e-01 1.9019350409507751e-01</leafValues></_>
        <_>
          <internalNodes>
            0 -1 801 -1.0710638761520386e-01</internalNodes>
          <leafValues>
            -5.9445083141326904e-01 3.5434368997812271e-02</leafValues></_>
        <_>
          <internalNodes>
            0 -1 1 -3.1833705725148320e-04</internalNodes>
          <leafValues>
            -2.6142936944961548e-01 8.3694070577621460e-02</leafValues></_>
        <_>
          <internalNodes>
            0 -1 608 2.2012868430465460e-03</internalNodes>
          <leafValues>
            -9.0686261653900146e-02 2.4481934309005737e-01</leafValues></_>
        <_>
          <internalNodes>
            0 -1 59 2.2189117968082428e-02</internalNodes>
          <leafValues>
            -7.0140808820724487e-02 2.9700225591659546e-01</leafValues></_>
        <_>
          <internalNodes>
            0 -1 598 2.5881342589855194e-03</internalNodes>
          <leafValues>
            -8.5809774696826935e-02 2.5493147969245911e-01</leafValues></_>
        <_>
          <internalNodes>
            0 -1 292 -1.4716973528265953e-03</internalNodes>
          <leafValues>
            -3.3754581212997437e-01 6.5649099647998810e-02</leafValues></_>
        <_>
          <internalNodes>
            0 -1 292 2.1890052594244480e-03</internalNodes>
          <leafValues>
            5.5331744253635406e-02 -4.1463443636894226e-01</leafValues></_>
        <_>
          <internalNodes>
            0 -1 1865 -1.3177304026612546e-05</internalNodes>
          <leafValues>
            1.5222749114036560e-01 -1.4173069596290588e-01</leafValues></_>
        <_>
          <internalNodes>
            0 -1 373 3.9394819177687168e-03</internalNodes>
          <leafValues>
            -9.4395905733108521e-02 2.3051103949546814e-01</leafValues></_>
        <_>
          <internalNodes>
            0 -1 1619 2.6267999783158302e-02</internalNodes>
          <leafValues>
            -1.0592924058437347e-01 2.0090518891811371e-01</leafValues></_>
        <_>
          <internalNodes>
            0 -1 384 1.1109083061455749e-05</internalNodes>
          <leafValues>
            -1.4300622045993805e-01 1.5432989597320557e-01</leafValues></_>
        <_>
          <internalNodes>
            0 -1 1773 -4.0486967191100121e-03</internalNodes>
          <leafValues>
            -5.2062201499938965e-01 3.6698538810014725e-02</leafValues></_>
        <_>
          <internalNodes>
            0 -1 1290 -5.3426870144903660e-03</internalNodes>
          <leafValues>
            2.1183888614177704e-01 -1.0199435055255890e-01</leafValues></_>
        <_>
          <internalNodes>
            0 -1 1326 1.1793632060289383e-02</internalNodes>
          <leafValues>
            2.9181148856878281e-02 -8.0697530508041382e-01</leafValues></_>
        <_>
          <internalNodes>
            0 -1 671 -3.7499815225601196e-03</internalNodes>
          <leafValues>
            -4.6216666698455811e-01 3.7575863301753998e-02</leafValues></_>
        <_>
          <internalNodes>
            0 -1 821 1.1473982340248767e-05</internalNodes>
          <leafValues>
            -1.4341130852699280e-01 1.3908095657825470e-01</leafValues></_>
        <_>
          <internalNodes>
            0 -1 849 -1.0088676586747169e-02</internalNodes>
          <leafValues>
            2.5415518879890442e-01 -8.4629565477371216e-02</leafValues></_>
        <_>
          <internalNodes>
            0 -1 1353 -3.5380078479647636e-03</internalNodes>
          <leafValues>
            -4.6932205557823181e-01 4.4505871832370758e-02</leafValues></_>
        <_>
          <internalNodes>
            0 -1 2003 3.8167723687365651e-04</internalNodes>
          <leafValues>
            8.2595422863960266e-02 -2.4019496142864227e-01</leafValues></_>
        <_>
          <internalNodes>
            0 -1 766 3.0773193575441837e-03</internalNodes>
          <leafValues>
            -1.0547342151403427e-01 2.0659244060516357e-01</leafValues></_>
        <_>
          <internalNodes>
            0 -1 1088 -7.0620328187942505e-03</internalNodes>
          <leafValues>
            4.2393252253532410e-01 -5.0430528819561005e-02</leafValues></_>
        <_>
          <internalNodes>
            0 -1 670 3.8316692225635052e-03</internalNodes>
          <leafValues>
            4.5256961137056351e-02 -4.5376986265182495e-01</leafValues></_>
        <_>
          <internalNodes>
            0 -1 1948 -3.8055540062487125e-03</internalNodes>
          <leafValues>
            3.9860540628433228e-01 -5.2760753780603409e-02</leafValues></_>
        <_>
          <internalNodes>
            0 -1 1864 -1.2265211807971355e-05</internalNodes>
          <leafValues>
            1.4092357456684113e-01 -1.4361074566841125e-01</leafValues></_>
        <_>
          <internalNodes>
            0 -1 1548 -3.1759813427925110e-02</internalNodes>
          <leafValues>
            4.3940746784210205e-01 -4.9677066504955292e-02</leafValues></_>
        <_>
          <internalNodes>
            0 -1 558 4.8525142669677734e-01</internalNodes>
          <leafValues>
            3.6083925515413284e-02 -6.3508200645446777e-01</leafValues></_>
        <_>
          <internalNodes>
            0 -1 1759 2.8056652809027582e-05</internalNodes>
          <leafValues>
            -1.5167099237442017e-01 1.3621662557125092e-01</leafValues></_>
        <_>
          <internalNodes>
            0 -1 305 6.0073770582675934e-02</internalNodes>
          <leafValues>
            3.0628627166152000e-02 -7.0643705129623413e-01</leafValues></_>
        <_>
          <internalNodes>
            0 -1 494 1.3382059478317387e-05</internalNodes>
          <leafValues>
            -1.6487964987754822e-01 1.2904828786849976e-01</leafValues></_>
        <_>
          <internalNodes>
            0 -1 1456 -6.7431111820042133e-03</internalNodes>
          <leafValues>
            -5.5604350566864014e-01 3.8226041942834854e-02</leafValues></_>
        <_>
          <internalNodes>
            0 -1 1683 1.2178931683592964e-05</internalNodes>
          <leafValues>
            -1.4586910605430603e-01 1.3667148351669312e-01</leafValues></_></weakClassifiers></_>
    <!-- stage 10 -->
    <_>
      <maxWeakCount>64</maxWeakCount>
      <stageThreshold>-1.6582528352737427e+00</stageThreshold>
      <weakClassifiers>
        <_>
          <internalNodes>
            0 -1 1618 -2.7421455830335617e-02</internalNodes>
          <leafValues>
            -1.9815059378743172e-02 -6.3691681623458862e-01</leafValues></_>
        <_>
          <internalNodes>
            0 -1 360 3.0304705724120140e-02</internalNodes>
          <leafValues>
            -3.2777559757232666e-01 1.5191975235939026e-01</leafValues></_>
        <_>
          <internalNodes>
            0 -1 34 1.7271688580513000e-01</internalNodes>
          <leafValues>
            -1.2059502303600311e-01 4.0356549620628357e-01</leafValues></_>
        <_>
          <internalNodes>
            0 -1 1045 2.4485643953084946e-02</internalNodes>
          <leafValues>
            -1.3403277099132538e-01 3.1447029113769531e-01</leafValues></_>
        <_>
          <internalNodes>
            0 -1 740 6.0421109199523926e-02</internalNodes>
          <leafValues>
            6.5439544618129730e-02 -4.3151196837425232e-01</leafValues></_>
        <_>
          <internalNodes>
            0 -1 69 -9.2732058838009834e-03</internalNodes>
          <leafValues>
            4.2292973399162292e-01 -4.7313593327999115e-02</leafValues></_>
        <_>
          <internalNodes>
            0 -1 1124 1.0318357963114977e-03</internalNodes>
          <leafValues>
            7.0763491094112396e-02 -3.5207596421241760e-01</leafValues></_>
        <_>
          <internalNodes>
            0 -1 516 -1.3500703498721123e-03</internalNodes>
          <leafValues>
            -3.4858781099319458e-01 8.2061417400836945e-02</leafValues></_>
        <_>
          <internalNodes>
            0 -1 1934 1.0708143934607506e-02</internalNodes>
          <leafValues>
            6.6669404506683350e-02 -4.3907931447029114e-01</leafValues></_>
        <_>
          <internalNodes>
            0 -1 464 5.6972961872816086e-02</internalNodes>
          <leafValues>
            -5.4417822510004044e-02 4.6258008480072021e-01</leafValues></_>
        <_>
          <internalNodes>
            0 -1 897 2.6399490889161825e-03</internalNodes>
          <leafValues>
            -1.6438266634941101e-01 1.9167788326740265e-01</leafValues></_>
        <_>
          <internalNodes>
            0 -1 2012 5.3734891116619110e-04</internalNodes>
          <leafValues>
            7.9532638192176819e-02 -3.0895367264747620e-01</leafValues></_>
        <_>
          <internalNodes>
            0 -1 46 1.0291927494108677e-02</internalNodes>
          <leafValues>
            -6.5533339977264404e-02 3.9250525832176208e-01</leafValues></_>
        <_>
          <internalNodes>
            0 -1 301 1.9004142377525568e-03</internalNodes>
          <leafValues>
            7.4534229934215546e-02 -3.3234384655952454e-01</leafValues></_>
        <_>
          <internalNodes>
            0 -1 1103 5.7324878871440887e-03</internalNodes>
          <leafValues>
            -6.9024473428726196e-02 3.3510011434555054e-01</leafValues></_>
        <_>
          <internalNodes>
            0 -1 1100 -3.1682034023106098e-03</internalNodes>
          <leafValues>
            3.8157793879508972e-01 -7.6039955019950867e-02</leafValues></_>
        <_>
          <internalNodes>
            0 -1 1822 -5.7671654969453812e-02</internalNodes>
          <leafValues>
            2.4948292970657349e-01 -1.0134460031986237e-01</leafValues></_>
        <_>
          <internalNodes>
            0 -1 81 3.6554131656885147e-04</internalNodes>
          <leafValues>
            8.2789331674575806e-02 -2.6973533630371094e-01</leafValues></_>
        <_>
          <internalNodes>
            0 -1 81 -2.1601869957521558e-04</internalNodes>
          <leafValues>
            -2.4329154193401337e-01 1.1669805645942688e-01</leafValues></_>
        <_>
          <internalNodes>
            0 -1 1422 7.5842309743165970e-03</internalNodes>
          <leafValues>
            3.7999968975782394e-02 -6.2226891517639160e-01</leafValues></_>
        <_>
          <internalNodes>
            0 -1 1922 2.4068485945463181e-02</internalNodes>
          <leafValues>
            -7.9332791268825531e-02 2.7256202697753906e-01</leafValues></_>
        <_>
          <internalNodes>
            0 -1 2013 4.4144035200588405e-04</internalNodes>
          <leafValues>
            8.0021142959594727e-02 -2.6652526855468750e-01</leafValues></_>
        <_>
          <internalNodes>
            0 -1 1522 2.1623871289193630e-03</internalNodes>
          <leafValues>
            -7.7544160187244415e-02 2.9132759571075439e-01</leafValues></_>
        <_>
          <internalNodes>
            0 -1 421 6.7279599606990814e-03</internalNodes>
          <leafValues>
            -9.6432082355022430e-02 2.2036127746105194e-01</leafValues></_>
        <_>
          <internalNodes>
            0 -1 151 -3.1759664416313171e-02</internalNodes>
          <leafValues>
            3.1843510270118713e-01 -6.9007501006126404e-02</leafValues></_>
        <_>
          <internalNodes>
            0 -1 866 -2.4951782077550888e-02</internalNodes>
          <leafValues>
            -5.5605697631835938e-01 4.0545687079429626e-02</leafValues></_>
        <_>
          <internalNodes>
            0 -1 499 -4.2312003672122955e-02</internalNodes>
          <leafValues>
            -6.4279210567474365e-01 2.5363588705658913e-02</leafValues></_>
        <_>
          <internalNodes>
            0 -1 12 2.9321908950805664e-02</internalNodes>
          <leafValues>
            -6.6028036177158356e-02 3.1814086437225342e-01</leafValues></_>
        <_>
          <internalNodes>
            0 -1 335 -3.2955682836472988e-03</internalNodes>
          <leafValues>
            1.7270767688751221e-01 -1.2139925360679626e-01</leafValues></_>
        <_>
          <internalNodes>
            0 -1 545 3.3976426348090172e-03</internalNodes>
          <leafValues>
            4.6771276742219925e-02 -4.3070673942565918e-01</leafValues></_>
        <_>
          <internalNodes>
            0 -1 922 -8.1994421780109406e-03</internalNodes>
          <leafValues>
            2.5009995698928833e-01 -8.3489835262298584e-02</leafValues></_>
        <_>
          <internalNodes>
            0 -1 1895 1.2113396078348160e-03</internalNodes>
          <leafValues>
            6.2273725867271423e-02 -3.3493658900260925e-01</leafValues></_>
        <_>
          <internalNodes>
            0 -1 1602 4.9887588247656822e-03</internalNodes>
          <leafValues>
            3.3888991922140121e-02 -5.7248097658157349e-01</leafValues></_>
        <_>
          <internalNodes>
            0 -1 1236 1.6952260630205274e-03</internalNodes>
          <leafValues>
            -1.0806899517774582e-01 1.8081654608249664e-01</leafValues></_>
        <_>
          <internalNodes>
            0 -1 725 9.5955713186413050e-04</internalNodes>
          <leafValues>
            -7.6574064791202545e-02 2.4841959774494171e-01</leafValues></_>
        <_>
          <internalNodes>
            0 -1 527 3.8315274287015200e-03</internalNodes>
          <leafValues>
            4.0966853499412537e-02 -4.9577069282531738e-01</leafValues></_>
        <_>
          <internalNodes>
            0 -1 891 3.1276335939764977e-03</internalNodes>
          <leafValues>
            -1.1065789312124252e-01 1.7811137437820435e-01</leafValues></_>
        <_>
          <internalNodes>
            0 -1 315 6.4221573993563652e-03</internalNodes>
          <leafValues>
            3.6890715360641479e-02 -5.2821552753448486e-01</leafValues></_>
        <_>
          <internalNodes>
            0 -1 889 4.6538007445633411e-03</internalNodes>
          <leafValues>
            -8.8687971234321594e-02 2.3874302208423615e-01</leafValues></_>
        <_>
          <internalNodes>
            0 -1 320 3.1318487599492073e-03</internalNodes>
          <leafValues>
            6.2290206551551819e-02 -3.2255804538726807e-01</leafValues></_>
        <_>
          <internalNodes>
            0 -1 1128 1.7081730067729950e-02</internalNodes>
          <leafValues>
            2.6621021330356598e-02 -6.6996377706527710e-01</leafValues></_>
        <_>
          <internalNodes>
            0 -1 677 3.0872467905282974e-02</internalNodes>
          <leafValues>
            2.6613513007760048e-02 -6.0923200845718384e-01</leafValues></_>
        <_>
          <internalNodes>
            0 -1 832 4.2307698167860508e-03</internalNodes>
          <leafValues>
            -1.2895706295967102e-01 1.5923377871513367e-01</leafValues></_>
        <_>
          <internalNodes>
            0 -1 156 5.8605112135410309e-03</internalNodes>
          <leafValues>
            -8.4624379873275757e-02 2.2888021171092987e-01</leafValues></_>
        <_>
          <internalNodes>
            0 -1 390 8.8011678308248520e-03</internalNodes>
          <leafValues>
            -1.1071588099002838e-01 2.0033083856105804e-01</leafValues></_>
        <_>
          <internalNodes>
            0 -1 1643 1.0628530755639076e-02</internalNodes>
          <leafValues>
            3.9772544056177139e-02 -4.6535596251487732e-01</leafValues></_>
        <_>
          <internalNodes>
            0 -1 1072 6.7318989895284176e-03</internalNodes>
          <leafValues>
            -1.4342384040355682e-01 1.2816773355007172e-01</leafValues></_>
        <_>
          <internalNodes>
            0 -1 815 7.3881838470697403e-03</internalNodes>
          <leafValues>
            -8.9214712381362915e-02 2.3458769917488098e-01</leafValues></_>
        <_>
          <internalNodes>
            0 -1 57 1.5477151609957218e-03</internalNodes>
          <leafValues>
            5.6133728474378586e-02 -3.5116454958915710e-01</leafValues></_>
        <_>
          <internalNodes>
            0 -1 1673 -2.9889528377680108e-05</internalNodes>
          <leafValues>
            1.2337056547403336e-01 -1.5145823359489441e-01</leafValues></_>
        <_>
          <internalNodes>
            0 -1 120 2.8807379305362701e-02</internalNodes>
          <leafValues>
            2.1534588187932968e-02 -8.4223675727844238e-01</leafValues></_>
        <_>
          <internalNodes>
            0 -1 1363 -1.0277191177010536e-02</internalNodes>
          <leafValues>
            2.3307821154594421e-01 -7.9008594155311584e-02</leafValues></_>
        <_>
          <internalNodes>
            0 -1 1737 6.3869105651974678e-03</internalNodes>
          <leafValues>
            3.8188695907592773e-02 -5.2772241830825806e-01</leafValues></_>
        <_>
          <internalNodes>
            0 -1 1855 4.4034672901034355e-03</internalNodes>
          <leafValues>
            -4.9041617661714554e-02 4.0558686852455139e-01</leafValues></_>
        <_>
          <internalNodes>
            0 -1 928 -6.2413536012172699e-02</internalNodes>
          <leafValues>
            -4.3176946043968201e-01 4.5403920114040375e-02</leafValues></_>
        <_>
          <internalNodes>
            0 -1 1491 -4.7672078944742680e-03</internalNodes>
          <leafValues>
            2.2415493428707123e-01 -8.9591950178146362e-02</leafValues></_>
        <_>
          <internalNodes>
            0 -1 461 1.4826152473688126e-02</internalNodes>
          <leafValues>
            -1.1018689721822739e-01 1.8897314369678497e-01</leafValues></_>
        <_>
          <internalNodes>
            0 -1 1977 1.1883832048624754e-03</internalNodes>
          <leafValues>
            6.9577388465404510e-02 -2.8879541158676147e-01</leafValues></_>
        <_>
          <internalNodes>
            0 -1 2018 3.4038641024380922e-04</internalNodes>
          <leafValues>
            7.3752418160438538e-02 -2.5638854503631592e-01</leafValues></_>
        <_>
          <internalNodes>
            0 -1 1903 1.9574362784624100e-02</internalNodes>
          <leafValues>
            -5.0871685147285461e-02 3.8113799691200256e-01</leafValues></_>
        <_>
          <internalNodes>
            0 -1 1866 5.2695488557219505e-03</internalNodes>
          <leafValues>
            3.4842055290937424e-02 -5.9246182441711426e-01</leafValues></_>
        <_>
          <internalNodes>
            0 -1 2002 -2.4826073786243796e-04</internalNodes>
          <leafValues>
            -1.9886100292205811e-01 9.9017143249511719e-02</leafValues></_>
        <_>
          <internalNodes>
            0 -1 509 3.3309222199022770e-03</internalNodes>
          <leafValues>
            -1.0709598660469055e-01 1.7614766955375671e-01</leafValues></_>
        <_>
          <internalNodes>
            0 -1 955 5.0170227885246277e-02</internalNodes>
          <leafValues>
            3.3335704356431961e-02 -5.9766232967376709e-01</leafValues></_></weakClassifiers></_>
    <!-- stage 11 -->
    <_>
      <maxWeakCount>68</maxWeakCount>
      <stageThreshold>-1.7024937868118286e+00</stageThreshold>
      <weakClassifiers>
        <_>
          <internalNodes>
            0 -1 705 -3.1674899160861969e-02</internalNodes>
          <leafValues>
            -7.1101874113082886e-02 -6.2988585233688354e-01</leafValues></_>
        <_>
          <internalNodes>
            0 -1 1387 -3.8980357348918915e-03</internalNodes>
          <leafValues>
            1.5493786334991455e-01 -3.4669208526611328e-01</leafValues></_>
        <_>
          <internalNodes>
            0 -1 160 4.3302632868289948e-02</internalNodes>
          <leafValues>
            -1.7342837154865265e-01 2.6267534494400024e-01</leafValues></_>
        <_>
          <internalNodes>
            0 -1 1218 4.6426677145063877e-03</internalNodes>
          <leafValues>
            -1.0235872119665146e-01 3.5909870266914368e-01</leafValues></_>
        <_>
          <internalNodes>
            0 -1 1100 1.5632115537300706e-03</internalNodes>
          <leafValues>
            -1.0889324545860291e-01 3.0180066823959351e-01</leafValues></_>
        <_>
          <internalNodes>
            0 -1 1874 -2.6707891374826431e-02</internalNodes>
          <leafValues>
            2.6963758468627930e-01 -1.1306962370872498e-01</leafValues></_>
        <_>
          <internalNodes>
            0 -1 277 1.3695666193962097e-01</internalNodes>
          <leafValues>
            9.7668647766113281e-02 -4.4322431087493896e-01</leafValues></_>
        <_>
          <internalNodes>
            0 -1 1105 3.2339002937078476e-03</internalNodes>
          <leafValues>
            -9.9569611251354218e-02 2.7367815375328064e-01</leafValues></_>
        <_>
          <internalNodes>
            0 -1 26 -4.2481902986764908e-02</internalNodes>
          <leafValues>
            4.0159925818443298e-01 -7.8053243458271027e-02</leafValues></_>
        <_>
          <internalNodes>
            0 -1 952 7.7738255262374878e-02</internalNodes>
          <leafValues>
            5.5347859859466553e-02 -5.5078214406967163e-01</leafValues></_>
        <_>
          <internalNodes>
            0 -1 1288 1.0119237005710602e-02</internalNodes>
          <leafValues>
            -2.3128691315650940e-01 1.2440027296543121e-01</leafValues></_>
        <_>
          <internalNodes>
            0 -1 52 1.2732975184917450e-02</internalNodes>
          <leafValues>
            4.6641398221254349e-02 -5.7596158981323242e-01</leafValues></_>
        <_>
          <internalNodes>
            0 -1 591 7.2023704648017883e-02</internalNodes>
          <leafValues>
            4.4681653380393982e-02 -4.4678422808647156e-01</leafValues></_>
        <_>
          <internalNodes>
            0 -1 608 1.8581002950668335e-03</internalNodes>
          <leafValues>
            -9.8364979028701782e-02 2.4577204883098602e-01</leafValues></_>
        <_>
          <internalNodes>
            0 -1 728 -2.0953177008777857e-03</internalNodes>
          <leafValues>
            3.6245554685592651e-01 -5.5834744125604630e-02</leafValues></_>
        <_>
          <internalNodes>
            0 -1 76 6.3134226948022842e-03</internalNodes>
          <leafValues>
            5.1908057183027267e-02 -4.3822810053825378e-01</leafValues></_>
        <_>
          <internalNodes>
            0 -1 844 2.7595877647399902e-02</internalNodes>
          <leafValues>
            5.2837047725915909e-02 -3.8818737864494324e-01</leafValues></_>
        <_>
          <internalNodes>
            0 -1 1881 1.5164373442530632e-02</internalNodes>
          <leafValues>
            3.8100589066743851e-02 -4.9411749839782715e-01</leafValues></_>
        <_>
          <internalNodes>
            0 -1 1356 8.0149958375841379e-04</internalNodes>
          <leafValues>
            -1.1261411756277084e-01 2.0084765553474426e-01</leafValues></_>
        <_>
          <internalNodes>
            0 -1 399 -5.9134598821401596e-02</internalNodes>
          <leafValues>
            -5.8348131179809570e-01 3.8641668856143951e-02</leafValues></_>
        <_>
          <internalNodes>
            0 -1 0 4.5983525342307985e-04</internalNodes>
          <leafValues>
            6.1600595712661743e-02 -3.0397981405258179e-01</leafValues></_>
        <_>
          <internalNodes>
            0 -1 1964 4.5095025561749935e-03</internalNodes>
          <leafValues>
            -6.2055818736553192e-02 3.3299851417541504e-01</leafValues></_>
        <_>
          <internalNodes>
            0 -1 1607 -5.2738129161298275e-03</internalNodes>
          <leafValues>
            -5.5590337514877319e-01 3.5520561039447784e-02</leafValues></_>
        <_>
          <internalNodes>
            0 -1 1972 -4.9643442034721375e-03</internalNodes>
          <leafValues>
            4.7988045215606689e-01 -4.4533923268318176e-02</leafValues></_>
        <_>
          <internalNodes>
            0 -1 1793 3.8943178951740265e-03</internalNodes>
          <leafValues>
            5.7743426412343979e-02 -3.6995267868041992e-01</leafValues></_>
        <_>
          <internalNodes>
            0 -1 1120 3.0433337669819593e-03</internalNodes>
          <leafValues>
            -9.1700978577136993e-02 2.2474275529384613e-01</leafValues></_>
        <_>
          <internalNodes>
            0 -1 1620 -2.9378688850556500e-05</internalNodes>
          <leafValues>
            1.2720432877540588e-01 -1.5309637784957886e-01</leafValues></_>
        <_>
          <internalNodes>
            0 -1 1484 2.3046506612445228e-05</internalNodes>
          <leafValues>
            -1.4684137701988220e-01 1.2698853015899658e-01</leafValues></_>
        <_>
          <internalNodes>
            0 -1 1591 -2.3558758199214935e-02</internalNodes>
          <leafValues>
            -4.6071925759315491e-01 4.0150880813598633e-02</leafValues></_>
        <_>
          <internalNodes>
            0 -1 876 -5.7997327530756593e-04</internalNodes>
          <leafValues>
            1.5778408944606781e-01 -1.3847728073596954e-01</leafValues></_>
        <_>
          <internalNodes>
            0 -1 1215 5.6973434984683990e-03</internalNodes>
          <leafValues>
            3.5123195499181747e-02 -5.5000418424606323e-01</leafValues></_>
        <_>
          <internalNodes>
            0 -1 782 2.0582927390933037e-03</internalNodes>
          <leafValues>
            -6.8021684885025024e-02 3.2133123278617859e-01</leafValues></_>
        <_>
          <internalNodes>
            0 -1 1327 1.3353636022657156e-03</internalNodes>
          <leafValues>
            -7.9676888883113861e-02 2.2998124361038208e-01</leafValues></_>
        <_>
          <internalNodes>
            0 -1 125 2.7361591346561909e-03</internalNodes>
          <leafValues>
            4.2966842651367188e-02 -4.4227930903434753e-01</leafValues></_>
        <_>
          <internalNodes>
            0 -1 1208 -1.8857540562748909e-03</internalNodes>
          <leafValues>
            2.5132089853286743e-01 -8.1046797335147858e-02</leafValues></_>
        <_>
          <internalNodes>
            0 -1 1028 -1.0992428660392761e-01</internalNodes>
          <leafValues>
            -5.4544502496719360e-01 3.5568576306104660e-02</leafValues></_>
        <_>
          <internalNodes>
            0 -1 681 9.7064211964607239e-02</internalNodes>
          <leafValues>
            1.8181402236223221e-02 -8.4803545475006104e-01</leafValues></_>
        <_>
          <internalNodes>
            0 -1 1360 1.3670228654518723e-03</internalNodes>
          <leafValues>
            -1.1087387800216675e-01 1.6146093606948853e-01</leafValues></_>
        <_>
          <internalNodes>
            0 -1 2015 1.9656370568554848e-04</internalNodes>
          <leafValues>
            8.4460951387882233e-02 -2.1932184696197510e-01</leafValues></_>
        <_>
          <internalNodes>
            0 -1 122 -1.9595712423324585e-02</internalNodes>
          <leafValues>
            -4.1530057787895203e-01 4.1652843356132507e-02</leafValues></_>
        <_>
          <internalNodes>
            0 -1 290 1.7495602369308472e-03</internalNodes>
          <leafValues>
            -1.4447396993637085e-01 1.3378745317459106e-01</leafValues></_>
        <_>
          <internalNodes>
            0 -1 967 1.7348865512758493e-03</internalNodes>
          <leafValues>
            -1.3267704844474792e-01 1.5712523460388184e-01</leafValues></_>
        <_>
          <internalNodes>
            0 -1 164 4.6972709894180298e-01</internalNodes>
          <leafValues>
            2.9663247987627983e-02 -6.6883146762847900e-01</leafValues></_>
        <_>
          <internalNodes>
            0 -1 115 3.7386373151093721e-03</internalNodes>
          <leafValues>
            4.3682735413312912e-02 -4.0792658925056458e-01</leafValues></_>
        <_>
          <internalNodes>
            0 -1 393 -2.6986672310158610e-05</internalNodes>
          <leafValues>
            1.3324223458766937e-01 -1.3898244500160217e-01</leafValues></_>
        <_>
          <internalNodes>
            0 -1 1403 2.0832992158830166e-03</internalNodes>
          <leafValues>
            -9.3111440539360046e-02 1.9678278267383575e-01</leafValues></_>
        <_>
          <internalNodes>
            0 -1 1622 3.9861407130956650e-03</internalNodes>
          <leafValues>
            -9.1198176145553589e-02 1.9820839166641235e-01</leafValues></_>
        <_>
          <internalNodes>
            0 -1 65 6.0477979481220245e-02</internalNodes>
          <leafValues>
            3.4402545541524887e-02 -5.4150384664535522e-01</leafValues></_>
        <_>
          <internalNodes>
            0 -1 1301 1.2775876559317112e-02</internalNodes>
          <leafValues>
            -1.6087248921394348e-01 1.0595124214887619e-01</leafValues></_>
        <_>
          <internalNodes>
            0 -1 1791 -6.0912286862730980e-03</internalNodes>
          <leafValues>
            2.6479479670524597e-01 -7.4613220989704132e-02</leafValues></_>
        <_>
          <internalNodes>
            0 -1 1791 2.7985351625829935e-03</internalNodes>
          <leafValues>
            -9.3276694416999817e-02 2.0351924002170563e-01</leafValues></_>
        <_>
          <internalNodes>
            0 -1 1239 -3.3977134153246880e-03</internalNodes>
          <leafValues>
            -3.6613076925277710e-01 5.1394198089838028e-02</leafValues></_>
        <_>
          <internalNodes>
            0 -1 610 -1.2938948348164558e-03</internalNodes>
          <leafValues>
            4.2714789509773254e-01 -4.8464767634868622e-02</leafValues></_>
        <_>
          <internalNodes>
            0 -1 410 1.6387768089771271e-02</internalNodes>
          <leafValues>
            -3.6595433950424194e-02 4.7272321581840515e-01</leafValues></_>
        <_>
          <internalNodes>
            0 -1 704 4.4062165543437004e-03</internalNodes>
          <leafValues>
            4.0639132261276245e-02 -4.8082801699638367e-01</leafValues></_>
        <_>
          <internalNodes>
            0 -1 1723 -3.9517607539892197e-02</internalNodes>
          <leafValues>
            -6.4754426479339600e-01 2.2916365414857864e-02</leafValues></_>
        <_>
          <internalNodes>
            0 -1 803 1.0621155379340053e-03</internalNodes>
          <leafValues>
            -1.2762452661991119e-01 1.4895011484622955e-01</leafValues></_>
        <_>
          <internalNodes>
            0 -1 159 4.1219469159841537e-02</internalNodes>
          <leafValues>
            -5.1128145307302475e-02 3.8670575618743896e-01</leafValues></_>
        <_>
          <internalNodes>
            0 -1 971 7.9938943963497877e-04</internalNodes>
          <leafValues>
            -1.5257422626018524e-01 1.2271153926849365e-01</leafValues></_>
        <_>
          <internalNodes>
            0 -1 2016 2.1403974096756428e-04</internalNodes>
          <leafValues>
            7.9108178615570068e-02 -2.5471886992454529e-01</leafValues></_>
        <_>
          <internalNodes>
            0 -1 802 1.0670140385627747e-02</internalNodes>
          <leafValues>
            -1.0612671822309494e-01 1.6534228622913361e-01</leafValues></_>
        <_>
          <internalNodes>
            0 -1 456 -4.4662289321422577e-02</internalNodes>
          <leafValues>
            3.9323341846466064e-01 -4.6660311520099640e-02</leafValues></_>
        <_>
          <internalNodes>
            0 -1 531 -4.5158406719565392e-03</internalNodes>
          <leafValues>
            5.7942074537277222e-01 -3.0036328360438347e-02</leafValues></_>
        <_>
          <internalNodes>
            0 -1 983 4.8838965594768524e-03</internalNodes>
          <leafValues>
            -8.4358431398868561e-02 2.0354995131492615e-01</leafValues></_>
        <_>
          <internalNodes>
            0 -1 653 3.3966097980737686e-03</internalNodes>
          <leafValues>
            4.2774494737386703e-02 -4.2246922850608826e-01</leafValues></_>
        <_>
          <internalNodes>
            0 -1 386 3.0397184673347510e-05</internalNodes>
          <leafValues>
            -1.4699320495128632e-01 1.2077122181653976e-01</leafValues></_>
        <_>
          <internalNodes>
            0 -1 1250 -1.7470992170274258e-03</internalNodes>
          <leafValues>
            -3.5668480396270752e-01 4.6260021626949310e-02</leafValues></_>
        <_>
          <internalNodes>
            0 -1 1672 -1.1809479474322870e-05</internalNodes>
          <leafValues>
            1.3760341703891754e-01 -1.2186314910650253e-01</leafValues></_></weakClassifiers></_>
    <!-- stage 12 -->
    <_>
      <maxWeakCount>79</maxWeakCount>
      <stageThreshold>-1.6236871480941772e+00</stageThreshold>
      <weakClassifiers>
        <_>
          <internalNodes>
            0 -1 1056 1.3259749859571457e-02</internalNodes>
          <leafValues>
            -6.1177825927734375e-01 -4.4592030346393585e-02</leafValues></_>
        <_>
          <internalNodes>
            0 -1 443 3.7684645503759384e-02</internalNodes>
          <leafValues>
            -2.9624831676483154e-01 1.7951168119907379e-01</leafValues></_>
        <_>
          <internalNodes>
            0 -1 716 3.1537604518234730e-03</internalNodes>
          <leafValues>
            -2.4860024452209473e-01 1.6474424302577972e-01</leafValues></_>
        <_>
          <internalNodes>
            0 -1 157 5.5138945579528809e-02</internalNodes>
          <leafValues>
            -1.3322049379348755e-01 2.4545009434223175e-01</leafValues></_>
        <_>
          <internalNodes>
            0 -1 469 -6.2361840158700943e-02</internalNodes>
          <leafValues>
            -4.1793534159660339e-01 1.1863618344068527e-01</leafValues></_>
        <_>
          <internalNodes>
            0 -1 1431 1.8883175216615200e-03</internalNodes>
          <leafValues>
            -1.5211218595504761e-01 1.9328033924102783e-01</leafValues></_>
        <_>
          <internalNodes>
            0 -1 1340 -4.3017528951168060e-03</internalNodes>
          <leafValues>
            3.8370609283447266e-01 -3.9823856204748154e-02</leafValues></_>
        <_>
          <internalNodes>
            0 -1 1772 -2.1606625523418188e-04</internalNodes>
          <leafValues>
            1.5117987990379333e-01 -1.6716422140598297e-01</leafValues></_>
        <_>
          <internalNodes>
